digraph Tree {
node [shape=box] ;
0 [label="recipe <= 0.5\ngini = 0.1705\nsamples = 946\nvalue = [89, 857]"] ;
1 [label="image_ratio <= 0.083\ngini = 0.4861\nsamples = 12\nvalue = [7, 5]"] ;
0 -> 1 [labeldistance=2.5, labelangle=45, headlabel="True"] ;
2 [label="gini = 0.2778\nsamples = 6\nvalue = [5, 1]"] ;
1 -> 2 ;
3 [label="gini = 0.4444\nsamples = 6\nvalue = [2, 4]"] ;
1 -> 3 ;
4 [label="html_ratio <= 0.2918\ngini = 0.1602\nsamples = 934\nvalue = [82, 852]"] ;
0 -> 4 [labeldistance=2.5, labelangle=-45, headlabel="False"] ;
5 [label="gini = 0.145\nsamples = 877\nvalue = [69, 808]"] ;
4 -> 5 ;
6 [label="gini = 0.3521\nsamples = 57\nvalue = [13, 44]"] ;
4 -> 6 ;
}